7 100
좋아할까 -0.00053622725 0.00023643136 0.0051033497 0.009009273 -0.0093029495 -0.007116809 0.0064588725 0.008972988 -0.005015428 -0.0037633716 0.0073805046 -0.0015334714 -0.0045366134 0.006554052 -0.0048601604 -0.0018160177 0.0028765798 0.0009918738 -0.008285215 -0.009448818 0.007311766 0.005070262 0.0067576934 0.00076286553 0.0063508903 -0.0034053659 -0.0009464014 0.0057685734 -0.0075216377 -0.0039361035 -0.007511582 -0.00093004224 0.009538119 -0.007319167 -0.0023337686 -0.0019377411 0.008077437 -0.005930896 4.516244e-05 -0.004753734 -0.009603551 0.005007293 -0.008759585 -0.0043918253 -3.5099984e-05 -0.00029618145 -0.00766124 0.009614743 0.004982058 0.009233143 -0.008157917 0.004495798 -0.004137076 0.0008245361 0.00849862 -0.0044621765 0.0045175003 -0.00678696 -0.0035484887 0.009398508 -0.0015776526 0.00032137157 -0.00414063 -0.007682688 -0.0015080082 0.0024697948 -0.00088802696 0.0055336617 -0.002742977 0.0022600652 0.0054557943 0.008345953 -0.0014537406 -0.009208143 0.0043705525 0.00057178497 0.007441908 -0.00081328274 -0.0026384138 -0.008753009 -0.0008565569 0.002826563 0.005401429 0.0070526563 -0.0057031214 0.0018588197 0.0060888636 -0.004798051 -0.0031072604 0.0067976294 0.0016314756 0.00018991709 0.0034736372 0.00021777749 0.009618826 0.005060604 -0.00891739 -0.0070415605 0.0009014559 0.006392534
NLP를 -0.0086196875 0.003665738 0.0051898835 0.0057419385 0.0074669183 -0.0061676754 0.0011056137 0.0060472824 -0.0028400505 -0.0061735227 -0.000410223 -0.0083689485 -0.0056000124 0.007104539 0.0033525396 0.0072256695 0.0068002474 0.007530742 -0.0037891543 -0.00056180597 0.0023483764 -0.0045190323 0.008388732 -0.009858164 0.006764641 0.0029144168 -0.0049328315 0.0043981876 -0.0017395747 0.0067113843 0.00996485 -0.0043624435 -0.0005993378 -0.0056956373 0.0038508223 0.0027866268 0.0068910765 0.0061010956 0.009538497 0.009273417 0.007898068 -0.006989504 -0.009155865 -0.0003557527 -0.0030998408 0.007894317 0.005938574 -0.0015456629 0.0015109634 0.0017900408 0.007817571 -0.0095101865 -0.00020553112 0.0034691966 -0.0009389722 0.008381772 0.009010783 0.0065365066 -0.000711621 0.007710404 -0.008534335 0.0032071066 -0.004637997 -0.005088955 0.0035896183 0.0053703394 0.0077695143 -0.0057665063 0.007433361 0.0066254963 -0.0037098003 -0.008745641 0.0054374672 0.0065097557 -0.00078755023 -0.006709856 -0.0070859254 -0.0024970602 0.0051432536 -0.0036652375 -0.00937006 0.0038267397 0.004884479 -0.0064285635 0.0012085581 -0.002074877 2.4403334e-05 -0.009883509 0.0026920044 -0.0047501065 0.0010876465 -0.0015762246 0.002196673 -0.007881576 -0.002717184 0.0026631986 0.005346682 -0.0023915148 -0.009510094 0.004505879
사람들도 9.456396e-05 0.0030773198 -0.006812645 -0.0013754654 0.007668581 0.0073464094 -0.0036732971 0.0026427018 -0.00831713 0.006205486 -0.0046373224 -0.0031641065 0.009311357 0.0008733857 0.007490703 -0.0060740625 0.005160507 0.009922823 -0.0084573915 -0.0051356913 -0.007064837 -0.0048626517 -0.0037785638 -0.008536199 0.007955606 -0.004843938 0.008423613 0.0052625705 -0.006550026 0.0039578713 0.0054701497 -0.007426536 -0.0074057197 -0.0024752307 -0.008625725 -0.0015815723 -0.00040343284 0.0032996845 0.0014418805 -0.00088142155 -0.005594058 0.0017303658 -0.0008973718 0.006793691 0.00397359 0.0045294715 0.0014343059 -0.0026998555 -0.0043668128 -0.0010320747 0.0014370275 -0.0026460087 -0.007073783 -0.007805307 -0.009121787 -0.0059351693 -0.0018474245 -0.0043238713 -0.0064606704 -0.0037173224 0.0042891586 -0.0037390434 0.008378175 0.0015339935 -0.0072423196 0.0094337985 0.0076312125 0.005493282 -0.0068488456 0.005822679 0.004009093 0.0051853694 0.0042559016 0.0019397545 -0.0031701624 0.008353845 0.00961218 0.003792603 -0.002836995 7.1275235e-06 0.0012188185 -0.008458325 -0.008223945 -0.00023101569 0.0012372875 -0.0057433806 -0.0047252737 -0.0073460746 0.008328616 0.00012129784 -0.0045093987 0.0057017053 0.009180015 -0.004099872 0.007964682 0.005375434 0.005879123 0.0005125904 0.008213084 -0.0070190406
다른 -0.008242678 0.009299355 -0.00019766092 -0.0019672764 0.0046036304 -0.004095316 0.0027431143 0.0069399667 0.006065426 -0.0075107943 0.00938235 0.0046718083 0.0039661205 -0.0062435055 0.00845998 -0.002150165 0.008825188 -0.0053620026 -0.008129419 0.006824559 0.0016711927 -0.002198509 0.009513601 0.009493855 -0.009774047 0.0025052286 0.0061566923 0.0038724565 0.0020227872 0.0004305017 0.00067363144 -0.0038206363 -0.0071402504 -0.0020888723 0.0039238976 0.008818683 0.00925915 -0.0059759365 -0.009402671 0.009764377 0.0034297847 0.005166117 0.006282345 -0.0028042626 0.0073227035 0.0028302716 0.0028710044 -0.00238037 -0.0031282497 -0.0023701417 0.0042764368 7.605791e-05 -0.009584279 -0.009665544 -0.006148194 -0.0001285696 0.001997416 0.0094319675 0.005584351 -0.0042906962 0.00027831673 0.0049643586 0.0076983096 -0.0011442233 0.0043234206 -0.0058143795 -0.00080419064 0.0081000505 -0.002360065 -0.009663455 0.0057792603 -0.0039298222 -0.0012228728 0.009980517 -0.0022563506 -0.0047570644 -0.0053293873 0.00698089 -0.005708872 0.002113663 -0.00525566 0.006120714 0.0043573068 0.002606355 -0.001491083 -0.0027460635 0.008992936 0.0052157748 -0.0021625196 -0.00947031 -0.007426052 -0.0010637414 -0.00079494715 -0.0025629092 0.0096827205 -0.00045852066 0.005873761 -0.0074475873 -0.0025060738 -0.0055498634
재미있다 -0.007139015 0.0012410306 -0.0071767163 -0.002244618 0.0037193035 0.005833124 0.0011981833 0.0021027315 -0.0041103913 0.0072253332 -0.0063070417 0.004647216 -0.008219973 0.002036468 -0.004977052 -0.004247688 -0.0031089843 0.0056552086 0.005798401 -0.004974649 0.0007733309 -0.008495778 0.0078098057 0.009257291 -0.0027423275 0.0008002233 0.0007466519 0.005477885 -0.008606079 0.00058445573 0.0068694223 0.0022315944 0.0011246764 -0.009322155 0.008482367 -0.0062641273 -0.0029923737 0.003493787 -0.0007726276 0.0014112913 0.0017819917 -0.0068288995 -0.009724812 0.009040585 0.0061980546 -0.0069129276 0.0034034825 0.00020606398 0.0047537456 -0.007119943 0.004026954 0.0043474343 0.009957369 -0.00447374 -0.0013892639 -0.0073173214 -0.009697829 -0.009080257 -0.0010227549 -0.00650329 0.004849728 -0.0061640264 0.0025191857 0.0007394409 -0.003392154 -0.0009792233 0.009979125 0.009145887 -0.0044618296 0.009083027 -0.005641763 0.005930922 -0.0030972182 0.0034317516 0.0030172265 0.006900461 -0.0023738837 0.008775037 0.007589428 -0.009547646 -0.008008209 -0.0076378966 0.0029232574 -0.0027947223 -0.0069295205 -0.008128264 0.00830918 0.0019904887 -0.009328017 -0.0047927164 0.0031367384 -0.004713206 0.005280843 -0.0042334413 0.002641796 -0.008045687 0.006209886 0.004818889 0.0007871926 0.0030134476
NLP가 -0.0087274825 0.0021301615 -0.0008735442 -0.009319088 -0.009428143 -0.001410718 0.0044324086 0.003704071 -0.006498693 -0.0068730675 -0.004999412 -0.0022868442 -0.0072502876 -0.009603318 -0.0027436293 -0.008362841 -0.006038876 -0.005670929 -0.0023441375 -0.0017069972 -0.008956999 -0.0007351994 0.008152506 0.0076904297 -0.007206116 -0.0036668312 0.003118552 -0.0095707225 0.0014764392 0.0065244664 0.0057464195 -0.008763062 -0.004517144 -0.008140161 4.5956374e-05 0.009263634 0.0059733056 0.005067308 0.0050610625 -0.0032429171 0.009552184 -0.0073564244 -0.0072703874 -0.002265389 -0.00077856064 -0.0032161034 -0.0005925858 0.007488823 -0.0006975186 -0.0016249407 0.0027443992 -0.008359101 0.007855804 0.008536104 -0.009584087 0.0024462664 0.009904971 -0.0076658037 -0.0069669187 -0.007736517 0.008395923 -0.0006813359 0.009144409 -0.008158221 0.0037430846 0.0026350426 0.0007427132 0.002327676 -0.007469094 -0.0093583735 0.0023545765 0.006148455 0.007985689 0.0057358947 -0.00077733636 0.008306164 -0.009336314 0.0034061326 0.00026675343 0.0038572443 0.0073857834 -0.006725167 0.0055844807 -0.009522225 -0.00080445886 -0.008688737 -0.005098673 0.0092892265 -0.0018582619 0.0029144264 0.009071279 0.008938133 -0.008208435 -0.0030123137 0.009886606 0.005104431 -0.0015880871 -0.0086920215 0.0029615164 -0.0066758976
나는 0.0081322715 -0.004457334 -0.0010683573 0.0010063648 -0.00019111396 0.0011481774 0.0061138608 -2.027154e-05 -0.0032459653 -0.0015107286 0.005897299 0.0015141022 -0.000724262 0.009333247 -0.0049212836 -0.00083840964 0.009175411 0.0067494274 0.001502856 -0.008882561 0.001148746 -0.0022882556 0.009368237 0.0012099278 0.0014900636 0.00240641 -0.0018360066 -0.004999634 0.0002324295 -0.0020141804 0.006600933 0.008940123 -0.0006747544 0.0029770148 -0.0061076544 0.0016993248 -0.0069262325 -0.008694027 -0.005900203 -0.008956475 0.007277595 -0.0057720314 0.008276352 -0.0072435453 0.003421675 0.009674999 -0.007785448 -0.009945057 -0.0043291464 -0.0026831306 -0.00027128935 -0.008831551 -0.008617558 0.0028002106 -0.008206407 -0.009069337 -0.0023404658 -0.008631808 -0.00705665 -0.008401151 -0.0003013289 -0.0045642983 0.0066271746 0.0015271604 -0.0033414757 0.006108972 -0.006013285 -0.0046561696 -0.007207509 -0.00433658 -0.00180933 0.006489643 -0.002770393 0.0049189674 0.0069044423 -0.0074637057 0.00456485 0.0061269784 -0.0029544747 0.006625022 0.0061258795 -0.006443485 -0.0067645516 0.0025389588 -0.0016238189 -0.006065128 0.009499209 -0.0051301466 -0.006554097 -0.000119885204 -0.002701428 0.0004444003 -0.0035374581 -0.0004193306 -0.00070861576 0.00082282064 0.008194817 -0.0057367072 -0.001659528 0.0055716075
